svm_type c_svc
kernel_type rbf
gamma 8.006405124099279E-4
nr_class 2
total_sv 48
rho 0.9999943673610687
label 0 1
nr_sv 24 24
SV
1.0 1:6.464124111182935E-4 2:6.464124111182935E-4 3:0.002585649644473174 4:0.0019392372333548805 5:0.001292824822236587 6:6.464124111182935E-4 7:6.464124111182935E-4 8:6.464124111182935E-4 9:6.464124111182935E-4 10:6.464124111182935E-4 11:6.464124111182935E-4 12:6.464124111182935E-4 13:6.464124111182935E-4 14:6.464124111182935E-4 15:0.001292824822236587 16:6.464124111182935E-4 17:0.002585649644473174 18:6.464124111182935E-4 19:0.003232062055591467 20:6.464124111182935E-4 21:6.464124111182935E-4 22:6.464124111182935E-4 23:6.464124111182935E-4 24:6.464124111182935E-4 25:6.464124111182935E-4 26:6.464124111182935E-4 27:0.001292824822236587 28:6.464124111182935E-4 29:6.464124111182935E-4 
1.0 30:0.015513897866839044 31:6.464124111182935E-4 32:0.04137039431157078 33:0.001292824822236587 34:6.464124111182935E-4 35:0.002585649644473174 36:6.464124111182935E-4 37:0.0019392372333548805 38:6.464124111182935E-4 39:0.003878474466709761 40:0.004524886877828055 41:6.464124111182935E-4 42:0.001292824822236587 43:6.464124111182935E-4 44:6.464124111182935E-4 45:0.0400775694893342 46:0.001292824822236587 47:6.464124111182935E-4 48:0.001292824822236587 49:6.464124111182935E-4 50:6.464124111182935E-4 51:0.007110536522301228 52:0.001292824822236587 53:0.003232062055591467 54:0.006464124111182934 55:0.006464124111182934 56:6.464124111182935E-4 57:6.464124111182935E-4 58:0.001292824822236587 59:6.464124111182935E-4 
1.0 60:6.464124111182935E-4 61:0.001292824822236587 62:0.003878474466709761 63:0.001292824822236587 64:6.464124111182935E-4 65:6.464124111182935E-4 66:0.001292824822236587 67:6.464124111182935E-4 68:6.464124111182935E-4 69:6.464124111182935E-4 70:6.464124111182935E-4 71:6.464124111182935E-4 72:6.464124111182935E-4 73:6.464124111182935E-4 74:6.464124111182935E-4 75:6.464124111182935E-4 76:6.464124111182935E-4 77:0.001292824822236587 78:6.464124111182935E-4 79:6.464124111182935E-4 80:6.464124111182935E-4 81:0.001292824822236587 82:0.0019392372333548805 83:6.464124111182935E-4 84:6.464124111182935E-4 85:0.005817711700064641 86:6.464124111182935E-4 87:6.464124111182935E-4 88:6.464124111182935E-4 89:0.001292824822236587 
1.0 90:0.001292824822236587 91:0.001292824822236587 92:6.464124111182935E-4 93:6.464124111182935E-4 94:6.464124111182935E-4 95:6.464124111182935E-4 96:0.001292824822236587 97:6.464124111182935E-4 98:0.0200387847446671 99:0.002585649644473174 100:0.0019392372333548805 101:6.464124111182935E-4 102:0.001292824822236587 103:6.464124111182935E-4 104:6.464124111182935E-4 105:6.464124111182935E-4 106:0.001292824822236587 107:6.464124111182935E-4 108:6.464124111182935E-4 109:6.464124111182935E-4 110:0.001292824822236587 111:0.001292824822236587 112:6.464124111182935E-4 113:6.464124111182935E-4 114:6.464124111182935E-4 115:6.464124111182935E-4 116:6.464124111182935E-4 117:6.464124111182935E-4 118:6.464124111182935E-4 119:6.464124111182935E-4 
1.0 120:0.001292824822236587 121:6.464124111182935E-4 122:6.464124111182935E-4 123:6.464124111182935E-4 124:6.464124111182935E-4 125:6.464124111182935E-4 126:0.002585649644473174 127:0.001292824822236587 128:0.003232062055591467 129:6.464124111182935E-4 130:0.001292824822236587 131:6.464124111182935E-4 132:6.464124111182935E-4 133:6.464124111182935E-4 134:0.001292824822236587 135:6.464124111182935E-4 136:0.009696186166774402 137:6.464124111182935E-4 138:6.464124111182935E-4 139:6.464124111182935E-4 140:6.464124111182935E-4 141:6.464124111182935E-4 142:0.0019392372333548805 143:0.001292824822236587 144:6.464124111182935E-4 145:6.464124111182935E-4 146:6.464124111182935E-4 147:6.464124111182935E-4 148:6.464124111182935E-4 149:6.464124111182935E-4 
1.0 150:0.002585649644473174 151:6.464124111182935E-4 152:6.464124111182935E-4 153:6.464124111182935E-4 154:0.01098901098901099 155:0.002585649644473174 156:6.464124111182935E-4 157:6.464124111182935E-4 158:6.464124111182935E-4 159:6.464124111182935E-4 160:6.464124111182935E-4 161:6.464124111182935E-4 162:6.464124111182935E-4 163:0.0019392372333548805 164:6.464124111182935E-4 165:6.464124111182935E-4 166:6.464124111182935E-4 167:6.464124111182935E-4 168:6.464124111182935E-4 169:0.003232062055591467 170:6.464124111182935E-4 171:6.464124111182935E-4 172:6.464124111182935E-4 173:6.464124111182935E-4 174:6.464124111182935E-4 175:0.001292824822236587 176:6.464124111182935E-4 177:6.464124111182935E-4 178:6.464124111182935E-4 179:6.464124111182935E-4 
1.0 180:6.464124111182935E-4 181:6.464124111182935E-4 182:6.464124111182935E-4 183:0.008403361344537815 184:6.464124111182935E-4 185:0.003232062055591467 186:0.001292824822236587 187:6.464124111182935E-4 188:0.003232062055591467 189:6.464124111182935E-4 190:6.464124111182935E-4 191:6.464124111182935E-4 192:6.464124111182935E-4 193:6.464124111182935E-4 194:6.464124111182935E-4 195:6.464124111182935E-4 196:0.001292824822236587 197:6.464124111182935E-4 198:0.001292824822236587 199:6.464124111182935E-4 200:0.0019392372333548805 201:6.464124111182935E-4 202:6.464124111182935E-4 203:6.464124111182935E-4 204:6.464124111182935E-4 205:6.464124111182935E-4 206:6.464124111182935E-4 207:0.001292824822236587 208:6.464124111182935E-4 209:6.464124111182935E-4 
1.0 210:6.464124111182935E-4 211:6.464124111182935E-4 212:6.464124111182935E-4 213:6.464124111182935E-4 214:6.464124111182935E-4 215:6.464124111182935E-4 216:6.464124111182935E-4 217:6.464124111182935E-4 218:6.464124111182935E-4 219:6.464124111182935E-4 220:6.464124111182935E-4 221:6.464124111182935E-4 222:0.004524886877828055 223:6.464124111182935E-4 224:6.464124111182935E-4 225:6.464124111182935E-4 226:0.001292824822236587 227:6.464124111182935E-4 228:6.464124111182935E-4 229:6.464124111182935E-4 230:6.464124111182935E-4 231:6.464124111182935E-4 232:6.464124111182935E-4 233:0.001292824822236587 234:6.464124111182935E-4 235:0.002585649644473174 236:6.464124111182935E-4 237:6.464124111182935E-4 238:6.464124111182935E-4 239:6.464124111182935E-4 
1.0 240:6.464124111182935E-4 241:6.464124111182935E-4 242:6.464124111182935E-4 243:0.002585649644473174 244:0.007110536522301228 245:6.464124111182935E-4 246:0.0019392372333548805 247:6.464124111182935E-4 248:6.464124111182935E-4 249:6.464124111182935E-4 250:6.464124111182935E-4 251:6.464124111182935E-4 252:0.025210084033613446 253:0.001292824822236587 254:6.464124111182935E-4 255:6.464124111182935E-4 256:6.464124111182935E-4 257:0.002585649644473174 258:6.464124111182935E-4 259:6.464124111182935E-4 260:6.464124111182935E-4 261:6.464124111182935E-4 262:6.464124111182935E-4 263:6.464124111182935E-4 264:6.464124111182935E-4 265:6.464124111182935E-4 266:6.464124111182935E-4 267:6.464124111182935E-4 268:6.464124111182935E-4 269:0.001292824822236587 
1.0 270:6.464124111182935E-4 271:6.464124111182935E-4 272:6.464124111182935E-4 273:6.464124111182935E-4 274:6.464124111182935E-4 275:6.464124111182935E-4 276:0.001292824822236587 277:6.464124111182935E-4 278:0.001292824822236587 279:6.464124111182935E-4 280:6.464124111182935E-4 281:6.464124111182935E-4 282:6.464124111182935E-4 283:6.464124111182935E-4 284:0.002585649644473174 285:6.464124111182935E-4 286:6.464124111182935E-4 287:6.464124111182935E-4 288:6.464124111182935E-4 289:0.003878474466709761 290:6.464124111182935E-4 291:6.464124111182935E-4 292:0.001292824822236587 293:0.004524886877828055 294:6.464124111182935E-4 295:0.001292824822236587 296:6.464124111182935E-4 297:6.464124111182935E-4 298:6.464124111182935E-4 299:6.464124111182935E-4 
1.0 300:0.001292824822236587 301:6.464124111182935E-4 302:6.464124111182935E-4 303:0.002585649644473174 304:0.001292824822236587 305:6.464124111182935E-4 306:6.464124111182935E-4 307:0.001292824822236587 308:6.464124111182935E-4 309:6.464124111182935E-4 310:6.464124111182935E-4 311:6.464124111182935E-4 312:0.005171299288946348 313:6.464124111182935E-4 314:6.464124111182935E-4 315:0.003232062055591467 316:6.464124111182935E-4 317:6.464124111182935E-4 318:6.464124111182935E-4 319:0.001292824822236587 320:0.003232062055591467 321:0.00904977375565611 322:0.003232062055591467 323:0.003878474466709761 324:6.464124111182935E-4 325:0.001292824822236587 326:6.464124111182935E-4 327:6.464124111182935E-4 328:6.464124111182935E-4 329:0.001292824822236587 
1.0 330:6.464124111182935E-4 331:6.464124111182935E-4 332:6.464124111182935E-4 333:6.464124111182935E-4 334:6.464124111182935E-4 335:6.464124111182935E-4 336:6.464124111182935E-4 337:6.464124111182935E-4 338:6.464124111182935E-4 339:6.464124111182935E-4 340:6.464124111182935E-4 341:0.002585649644473174 342:0.001292824822236587 343:0.001292824822236587 344:6.464124111182935E-4 345:6.464124111182935E-4 346:6.464124111182935E-4 347:0.0019392372333548805 348:0.001292824822236587 349:0.001292824822236587 350:6.464124111182935E-4 351:0.001292824822236587 352:6.464124111182935E-4 353:6.464124111182935E-4 354:0.007756948933419522 355:0.001292824822236587 356:6.464124111182935E-4 357:6.464124111182935E-4 358:6.464124111182935E-4 359:6.464124111182935E-4 
1.0 360:0.001292824822236587 361:6.464124111182935E-4 362:6.464124111182935E-4 363:6.464124111182935E-4 364:0.001292824822236587 365:6.464124111182935E-4 366:6.464124111182935E-4 367:6.464124111182935E-4 368:6.464124111182935E-4 369:6.464124111182935E-4 370:6.464124111182935E-4 371:0.001292824822236587 372:6.464124111182935E-4 373:6.464124111182935E-4 374:0.001292824822236587 375:0.001292824822236587 376:6.464124111182935E-4 377:6.464124111182935E-4 378:6.464124111182935E-4 379:0.01098901098901099 380:6.464124111182935E-4 381:0.0019392372333548805 382:6.464124111182935E-4 383:6.464124111182935E-4 384:0.005171299288946348 385:6.464124111182935E-4 386:6.464124111182935E-4 387:6.464124111182935E-4 388:6.464124111182935E-4 389:6.464124111182935E-4 
1.0 390:6.464124111182935E-4 391:6.464124111182935E-4 392:6.464124111182935E-4 393:6.464124111182935E-4 394:6.464124111182935E-4 395:6.464124111182935E-4 396:6.464124111182935E-4 397:6.464124111182935E-4 398:0.001292824822236587 399:6.464124111182935E-4 400:0.001292824822236587 401:6.464124111182935E-4 402:6.464124111182935E-4 403:6.464124111182935E-4 404:6.464124111182935E-4 405:0.001292824822236587 406:6.464124111182935E-4 407:6.464124111182935E-4 408:6.464124111182935E-4 409:6.464124111182935E-4 410:6.464124111182935E-4 411:6.464124111182935E-4 412:6.464124111182935E-4 413:0.007110536522301228 414:6.464124111182935E-4 415:6.464124111182935E-4 416:0.004524886877828055 417:6.464124111182935E-4 418:6.464124111182935E-4 419:6.464124111182935E-4 
1.0 420:6.464124111182935E-4 421:6.464124111182935E-4 422:6.464124111182935E-4 423:6.464124111182935E-4 424:6.464124111182935E-4 425:6.464124111182935E-4 426:6.464124111182935E-4 427:6.464124111182935E-4 428:6.464124111182935E-4 429:0.001292824822236587 430:6.464124111182935E-4 431:6.464124111182935E-4 432:0.0019392372333548805 433:6.464124111182935E-4 434:6.464124111182935E-4 435:6.464124111182935E-4 436:6.464124111182935E-4 437:0.003232062055591467 438:6.464124111182935E-4 439:6.464124111182935E-4 440:0.0019392372333548805 441:0.001292824822236587 442:6.464124111182935E-4 443:0.003878474466709761 444:0.003878474466709761 445:0.0019392372333548805 446:6.464124111182935E-4 447:0.0019392372333548805 448:0.0019392372333548805 449:6.464124111182935E-4 
1.0 450:6.464124111182935E-4 451:6.464124111182935E-4 452:6.464124111182935E-4 453:6.464124111182935E-4 454:6.464124111182935E-4 455:0.003232062055591467 456:6.464124111182935E-4 457:6.464124111182935E-4 458:0.002585649644473174 459:6.464124111182935E-4 460:6.464124111182935E-4 461:0.0019392372333548805 462:0.001292824822236587 463:0.0019392372333548805 464:0.01098901098901099 465:0.001292824822236587 466:6.464124111182935E-4 467:6.464124111182935E-4 468:6.464124111182935E-4 469:6.464124111182935E-4 470:0.002585649644473174 471:6.464124111182935E-4 472:0.001292824822236587 473:6.464124111182935E-4 474:0.001292824822236587 475:6.464124111182935E-4 476:6.464124111182935E-4 477:6.464124111182935E-4 478:0.001292824822236587 479:6.464124111182935E-4 
1.0 480:0.003232062055591467 481:6.464124111182935E-4 482:0.0019392372333548805 483:6.464124111182935E-4 484:6.464124111182935E-4 485:6.464124111182935E-4 486:0.001292824822236587 487:6.464124111182935E-4 488:6.464124111182935E-4 489:6.464124111182935E-4 490:6.464124111182935E-4 491:6.464124111182935E-4 492:6.464124111182935E-4 493:6.464124111182935E-4 494:6.464124111182935E-4 495:6.464124111182935E-4 496:0.001292824822236587 497:6.464124111182935E-4 498:0.007110536522301228 499:6.464124111182935E-4 500:6.464124111182935E-4 501:0.001292824822236587 502:0.001292824822236587 503:6.464124111182935E-4 504:6.464124111182935E-4 505:6.464124111182935E-4 506:6.464124111182935E-4 507:6.464124111182935E-4 508:0.003878474466709761 509:6.464124111182935E-4 
1.0 510:6.464124111182935E-4 511:6.464124111182935E-4 512:6.464124111182935E-4 513:0.001292824822236587 514:6.464124111182935E-4 515:6.464124111182935E-4 516:0.0019392372333548805 517:6.464124111182935E-4 518:6.464124111182935E-4 519:6.464124111182935E-4 520:0.0019392372333548805 521:6.464124111182935E-4 522:0.001292824822236587 523:6.464124111182935E-4 524:6.464124111182935E-4 525:6.464124111182935E-4 526:6.464124111182935E-4 527:6.464124111182935E-4 528:6.464124111182935E-4 529:6.464124111182935E-4 530:6.464124111182935E-4 531:0.001292824822236587 532:6.464124111182935E-4 533:6.464124111182935E-4 534:6.464124111182935E-4 535:0.001292824822236587 536:0.001292824822236587 537:6.464124111182935E-4 538:6.464124111182935E-4 539:6.464124111182935E-4 
1.0 540:6.464124111182935E-4 541:6.464124111182935E-4 542:6.464124111182935E-4 543:6.464124111182935E-4 544:6.464124111182935E-4 545:0.007110536522301228 546:6.464124111182935E-4 547:6.464124111182935E-4 548:6.464124111182935E-4 549:6.464124111182935E-4 550:0.001292824822236587 551:6.464124111182935E-4 552:6.464124111182935E-4 553:6.464124111182935E-4 554:0.03749191984486102 555:6.464124111182935E-4 556:6.464124111182935E-4 557:0.002585649644473174 558:0.001292824822236587 559:6.464124111182935E-4 560:6.464124111182935E-4 561:6.464124111182935E-4 562:0.001292824822236587 563:6.464124111182935E-4 564:6.464124111182935E-4 565:6.464124111182935E-4 566:6.464124111182935E-4 567:0.003878474466709761 568:0.001292824822236587 569:6.464124111182935E-4 
1.0 570:6.464124111182935E-4 571:6.464124111182935E-4 572:6.464124111182935E-4 573:0.001292824822236587 574:6.464124111182935E-4 575:6.464124111182935E-4 576:0.0019392372333548805 577:6.464124111182935E-4 578:6.464124111182935E-4 579:6.464124111182935E-4 580:0.001292824822236587 581:6.464124111182935E-4 582:0.001292824822236587 583:6.464124111182935E-4 584:0.001292824822236587 585:6.464124111182935E-4 586:6.464124111182935E-4 587:6.464124111182935E-4 588:6.464124111182935E-4 589:6.464124111182935E-4 590:6.464124111182935E-4 591:6.464124111182935E-4 592:6.464124111182935E-4 593:6.464124111182935E-4 594:6.464124111182935E-4 595:0.001292824822236587 596:6.464124111182935E-4 597:0.003878474466709761 598:6.464124111182935E-4 599:0.001292824822236587 
1.0 600:6.464124111182935E-4 601:6.464124111182935E-4 602:6.464124111182935E-4 603:6.464124111182935E-4 604:6.464124111182935E-4 605:6.464124111182935E-4 606:6.464124111182935E-4 607:6.464124111182935E-4 608:0.0019392372333548805 609:6.464124111182935E-4 610:0.001292824822236587 611:6.464124111182935E-4 612:6.464124111182935E-4 613:6.464124111182935E-4 614:0.001292824822236587 615:6.464124111182935E-4 616:0.0019392372333548805 617:6.464124111182935E-4 618:0.003878474466709761 619:6.464124111182935E-4 620:0.003232062055591467 621:6.464124111182935E-4 622:0.0019392372333548805 623:0.001292824822236587 624:0.001292824822236587 625:0.001292824822236587 626:6.464124111182935E-4 627:6.464124111182935E-4 628:6.464124111182935E-4 629:0.001292824822236587 
1.0 630:6.464124111182935E-4 631:6.464124111182935E-4 632:6.464124111182935E-4 633:6.464124111182935E-4 634:0.0019392372333548805 635:6.464124111182935E-4 636:0.0019392372333548805 637:6.464124111182935E-4 638:6.464124111182935E-4 639:6.464124111182935E-4 640:6.464124111182935E-4 641:6.464124111182935E-4 642:6.464124111182935E-4 643:0.001292824822236587 644:0.0019392372333548805 645:6.464124111182935E-4 646:0.001292824822236587 647:0.001292824822236587 648:6.464124111182935E-4 649:6.464124111182935E-4 650:6.464124111182935E-4 651:6.464124111182935E-4 652:6.464124111182935E-4 653:6.464124111182935E-4 654:6.464124111182935E-4 655:6.464124111182935E-4 656:0.001292824822236587 657:6.464124111182935E-4 658:0.001292824822236587 659:6.464124111182935E-4 
1.0 660:0.001292824822236587 661:6.464124111182935E-4 662:6.464124111182935E-4 663:6.464124111182935E-4 664:6.464124111182935E-4 665:6.464124111182935E-4 666:6.464124111182935E-4 667:0.001292824822236587 668:6.464124111182935E-4 669:0.007110536522301228 670:6.464124111182935E-4 671:0.0019392372333548805 672:0.003878474466709761 673:6.464124111182935E-4 674:6.464124111182935E-4 675:6.464124111182935E-4 676:6.464124111182935E-4 677:6.464124111182935E-4 678:0.003878474466709761 679:6.464124111182935E-4 680:0.001292824822236587 681:6.464124111182935E-4 682:6.464124111182935E-4 683:6.464124111182935E-4 684:6.464124111182935E-4 685:0.001292824822236587 686:6.464124111182935E-4 687:6.464124111182935E-4 688:6.464124111182935E-4 689:6.464124111182935E-4 
1.0 690:0.001292824822236587 691:6.464124111182935E-4 692:6.464124111182935E-4 693:6.464124111182935E-4 694:6.464124111182935E-4 695:6.464124111182935E-4 696:0.001292824822236587 697:6.464124111182935E-4 698:6.464124111182935E-4 699:6.464124111182935E-4 700:6.464124111182935E-4 701:6.464124111182935E-4 702:6.464124111182935E-4 703:0.001292824822236587 704:6.464124111182935E-4 705:6.464124111182935E-4 706:6.464124111182935E-4 707:6.464124111182935E-4 708:6.464124111182935E-4 709:0.0019392372333548805 710:0.0019392372333548805 711:6.464124111182935E-4 712:6.464124111182935E-4 713:6.464124111182935E-4 714:0.008403361344537815 715:6.464124111182935E-4 716:0.001292824822236587 
-1.0 30:5.136106831022085E-4 31:5.136106831022085E-4 32:0.0061633281972265025 33:0.001027221366204417 34:0.001027221366204417 35:5.136106831022085E-4 36:0.001027221366204417 37:5.136106831022085E-4 38:0.001027221366204417 39:5.136106831022085E-4 40:0.017976373908577297 41:5.136106831022085E-4 42:0.001027221366204417 43:0.00667693888032871 44:5.136106831022085E-4 45:0.001027221366204417 46:0.002054442732408834 47:5.136106831022085E-4 48:5.136106831022085E-4 49:5.136106831022085E-4 50:5.136106831022085E-4 51:5.136106831022085E-4 52:5.136106831022085E-4 53:5.136106831022085E-4 54:5.136106831022085E-4 55:5.136106831022085E-4 56:5.136106831022085E-4 57:5.136106831022085E-4 58:5.136106831022085E-4 59:5.136106831022085E-4 
-1.0 90:5.136106831022085E-4 91:5.136106831022085E-4 92:5.136106831022085E-4 93:5.136106831022085E-4 94:0.002054442732408834 95:0.001027221366204417 96:5.136106831022085E-4 97:5.136106831022085E-4 98:5.136106831022085E-4 99:5.136106831022085E-4 100:5.136106831022085E-4 101:5.136106831022085E-4 102:5.136106831022085E-4 103:5.136106831022085E-4 104:5.136106831022085E-4 105:5.136106831022085E-4 106:5.136106831022085E-4 107:5.136106831022085E-4 108:5.136106831022085E-4 109:5.136106831022085E-4 110:5.136106831022085E-4 111:5.136106831022085E-4 112:0.001027221366204417 113:5.136106831022085E-4 114:5.136106831022085E-4 115:0.001027221366204417 116:5.136106831022085E-4 117:5.136106831022085E-4 118:5.136106831022085E-4 119:5.136106831022085E-4 
-1.0 120:0.001027221366204417 121:5.136106831022085E-4 122:0.001027221366204417 123:5.136106831022085E-4 124:5.136106831022085E-4 125:5.136106831022085E-4 126:5.136106831022085E-4 127:5.136106831022085E-4 128:5.136106831022085E-4 129:0.001027221366204417 130:5.136106831022085E-4 131:5.136106831022085E-4 132:5.136106831022085E-4 133:0.001027221366204417 134:0.001027221366204417 135:5.136106831022085E-4 136:5.136106831022085E-4 137:0.002054442732408834 138:5.136106831022085E-4 139:5.136106831022085E-4 140:0.001027221366204417 141:5.136106831022085E-4 142:5.136106831022085E-4 143:5.136106831022085E-4 144:0.002054442732408834 145:0.001027221366204417 146:0.001027221366204417 147:0.001027221366204417 148:5.136106831022085E-4 149:0.001027221366204417 
-1.0 150:0.001027221366204417 151:0.001027221366204417 152:0.001027221366204417 153:5.136106831022085E-4 154:0.004108885464817668 155:5.136106831022085E-4 156:5.136106831022085E-4 157:5.136106831022085E-4 158:5.136106831022085E-4 159:5.136106831022085E-4 160:5.136106831022085E-4 161:5.136106831022085E-4 162:5.136106831022085E-4 163:5.136106831022085E-4 164:5.136106831022085E-4 165:5.136106831022085E-4 166:5.136106831022085E-4 167:5.136106831022085E-4 168:5.136106831022085E-4 169:0.0015408320493066256 170:0.001027221366204417 171:5.136106831022085E-4 172:5.136106831022085E-4 173:5.136106831022085E-4 174:5.136106831022085E-4 175:5.136106831022085E-4 176:5.136106831022085E-4 177:5.136106831022085E-4 178:5.136106831022085E-4 179:5.136106831022085E-4 
-1.0 180:5.136106831022085E-4 181:0.0025680534155110425 182:0.0025680534155110425 183:0.001027221366204417 184:5.136106831022085E-4 185:5.136106831022085E-4 186:5.136106831022085E-4 187:5.136106831022085E-4 188:5.136106831022085E-4 189:5.136106831022085E-4 190:5.136106831022085E-4 191:5.136106831022085E-4 192:0.001027221366204417 193:5.136106831022085E-4 194:0.0015408320493066256 195:5.136106831022085E-4 196:5.136106831022085E-4 197:5.136106831022085E-4 198:5.136106831022085E-4 199:5.136106831022085E-4 200:5.136106831022085E-4 201:5.136106831022085E-4 202:5.136106831022085E-4 203:0.001027221366204417 204:0.004108885464817668 205:5.136106831022085E-4 206:5.136106831022085E-4 207:5.136106831022085E-4 208:0.0015408320493066256 209:5.136106831022085E-4 
-1.0 210:5.136106831022085E-4 211:5.136106831022085E-4 212:5.136106831022085E-4 213:5.136106831022085E-4 214:5.136106831022085E-4 215:5.136106831022085E-4 216:5.136106831022085E-4 217:5.136106831022085E-4 218:5.136106831022085E-4 219:0.0030816640986132513 220:5.136106831022085E-4 221:5.136106831022085E-4 222:5.136106831022085E-4 223:0.002054442732408834 224:5.136106831022085E-4 225:0.0025680534155110425 226:5.136106831022085E-4 227:5.136106831022085E-4 228:5.136106831022085E-4 229:5.136106831022085E-4 230:5.136106831022085E-4 231:5.136106831022085E-4 232:5.136106831022085E-4 233:5.136106831022085E-4 234:0.002054442732408834 235:5.136106831022085E-4 236:0.001027221366204417 237:5.136106831022085E-4 238:5.136106831022085E-4 239:5.136106831022085E-4 
-1.0 240:5.136106831022085E-4 241:0.004622496147919877 242:5.136106831022085E-4 243:5.136106831022085E-4 244:5.136106831022085E-4 245:5.136106831022085E-4 246:5.136106831022085E-4 247:0.001027221366204417 248:5.136106831022085E-4 249:5.136106831022085E-4 250:5.136106831022085E-4 251:0.004108885464817668 252:0.001027221366204417 253:0.001027221366204417 254:5.136106831022085E-4 255:5.136106831022085E-4 256:5.136106831022085E-4 257:0.0025680534155110425 258:0.001027221366204417 259:0.001027221366204417 260:5.136106831022085E-4 261:5.136106831022085E-4 262:5.136106831022085E-4 263:0.001027221366204417 264:0.002054442732408834 265:5.136106831022085E-4 266:5.136106831022085E-4 267:0.001027221366204417 268:5.136106831022085E-4 269:5.136106831022085E-4 
-1.0 270:5.136106831022085E-4 271:5.136106831022085E-4 272:0.001027221366204417 273:0.001027221366204417 274:5.136106831022085E-4 275:5.136106831022085E-4 276:5.136106831022085E-4 277:5.136106831022085E-4 278:5.136106831022085E-4 279:5.136106831022085E-4 280:5.136106831022085E-4 281:5.136106831022085E-4 282:5.136106831022085E-4 283:0.001027221366204417 284:5.136106831022085E-4 285:5.136106831022085E-4 286:5.136106831022085E-4 287:5.136106831022085E-4 288:0.001027221366204417 289:0.001027221366204417 290:5.136106831022085E-4 291:5.136106831022085E-4 292:5.136106831022085E-4 293:5.136106831022085E-4 294:5.136106831022085E-4 295:5.136106831022085E-4 296:5.136106831022085E-4 297:5.136106831022085E-4 298:0.001027221366204417 299:0.001027221366204417 
-1.0 300:5.136106831022085E-4 301:5.136106831022085E-4 302:5.136106831022085E-4 303:5.136106831022085E-4 304:5.136106831022085E-4 305:5.136106831022085E-4 306:5.136106831022085E-4 307:5.136106831022085E-4 308:0.001027221366204417 309:0.002054442732408834 310:0.001027221366204417 311:5.136106831022085E-4 312:5.136106831022085E-4 313:0.001027221366204417 314:5.136106831022085E-4 315:5.136106831022085E-4 316:5.136106831022085E-4 317:5.136106831022085E-4 318:5.136106831022085E-4 319:5.136106831022085E-4 320:5.136106831022085E-4 321:0.001027221366204417 322:5.136106831022085E-4 323:5.136106831022085E-4 324:0.001027221366204417 325:5.136106831022085E-4 326:5.136106831022085E-4 327:0.0025680534155110425 328:0.0015408320493066256 329:5.136106831022085E-4 
-1.0 390:5.136106831022085E-4 391:5.136106831022085E-4 392:5.136106831022085E-4 393:0.002054442732408834 394:5.136106831022085E-4 395:5.136106831022085E-4 396:5.136106831022085E-4 397:5.136106831022085E-4 398:5.136106831022085E-4 399:5.136106831022085E-4 400:5.136106831022085E-4 401:0.002054442732408834 402:5.136106831022085E-4 403:5.136106831022085E-4 404:0.0025680534155110425 405:5.136106831022085E-4 406:0.0015408320493066256 407:0.001027221366204417 408:5.136106831022085E-4 409:0.0035952747817154596 410:5.136106831022085E-4 411:5.136106831022085E-4 412:5.136106831022085E-4 413:5.136106831022085E-4 414:5.136106831022085E-4 415:5.136106831022085E-4 416:5.136106831022085E-4 417:0.001027221366204417 418:0.0025680534155110425 419:5.136106831022085E-4 
-1.0 450:0.0015408320493066256 451:5.136106831022085E-4 452:5.136106831022085E-4 453:5.136106831022085E-4 454:5.136106831022085E-4 455:5.136106831022085E-4 456:5.136106831022085E-4 457:5.136106831022085E-4 458:0.002054442732408834 459:5.136106831022085E-4 460:5.136106831022085E-4 461:5.136106831022085E-4 462:5.136106831022085E-4 463:5.136106831022085E-4 464:5.136106831022085E-4 465:5.136106831022085E-4 466:5.136106831022085E-4 467:5.136106831022085E-4 468:0.001027221366204417 469:5.136106831022085E-4 470:5.136106831022085E-4 471:5.136106831022085E-4 472:5.136106831022085E-4 473:5.136106831022085E-4 474:5.136106831022085E-4 475:5.136106831022085E-4 476:0.001027221366204417 477:5.136106831022085E-4 478:5.136106831022085E-4 479:5.136106831022085E-4 
-1.0 480:5.136106831022085E-4 481:5.136106831022085E-4 482:5.136106831022085E-4 483:5.136106831022085E-4 484:5.136106831022085E-4 485:0.001027221366204417 486:5.136106831022085E-4 487:5.136106831022085E-4 488:5.136106831022085E-4 489:0.005136106831022085 490:5.136106831022085E-4 491:0.001027221366204417 492:5.136106831022085E-4 493:5.136106831022085E-4 494:0.001027221366204417 495:0.001027221366204417 496:0.0015408320493066256 497:5.136106831022085E-4 498:5.136106831022085E-4 499:5.136106831022085E-4 500:5.136106831022085E-4 501:5.136106831022085E-4 502:5.136106831022085E-4 503:5.136106831022085E-4 504:5.136106831022085E-4 505:5.136106831022085E-4 506:0.001027221366204417 507:5.136106831022085E-4 508:5.136106831022085E-4 509:5.136106831022085E-4 
-1.0 510:5.136106831022085E-4 511:0.0035952747817154596 512:5.136106831022085E-4 513:5.136106831022085E-4 514:0.0015408320493066256 515:5.136106831022085E-4 516:5.136106831022085E-4 517:5.136106831022085E-4 518:5.136106831022085E-4 519:0.002054442732408834 520:0.004108885464817668 521:5.136106831022085E-4 522:5.136106831022085E-4 523:0.001027221366204417 524:5.136106831022085E-4 525:5.136106831022085E-4 526:5.136106831022085E-4 527:5.136106831022085E-4 528:5.136106831022085E-4 529:5.136106831022085E-4 530:5.136106831022085E-4 531:5.136106831022085E-4 532:5.136106831022085E-4 533:0.0015408320493066256 534:0.0015408320493066256 535:0.001027221366204417 536:5.136106831022085E-4 537:5.136106831022085E-4 538:0.001027221366204417 539:5.136106831022085E-4 
-1.0 540:5.136106831022085E-4 541:5.136106831022085E-4 542:5.136106831022085E-4 543:5.136106831022085E-4 544:0.001027221366204417 545:5.136106831022085E-4 546:5.136106831022085E-4 547:5.136106831022085E-4 548:5.136106831022085E-4 549:5.136106831022085E-4 550:5.136106831022085E-4 551:5.136106831022085E-4 552:5.136106831022085E-4 553:0.001027221366204417 554:0.005649717514124294 555:5.136106831022085E-4 556:5.136106831022085E-4 557:0.00667693888032871 558:0.00667693888032871 559:5.136106831022085E-4 560:5.136106831022085E-4 561:5.136106831022085E-4 562:0.0015408320493066256 563:5.136106831022085E-4 564:5.136106831022085E-4 565:5.136106831022085E-4 566:5.136106831022085E-4 567:5.136106831022085E-4 568:0.001027221366204417 569:5.136106831022085E-4 
-1.0 570:5.136106831022085E-4 571:5.136106831022085E-4 572:5.136106831022085E-4 573:0.001027221366204417 574:5.136106831022085E-4 575:5.136106831022085E-4 576:5.136106831022085E-4 577:5.136106831022085E-4 578:5.136106831022085E-4 579:5.136106831022085E-4 580:5.136106831022085E-4 581:0.001027221366204417 582:0.001027221366204417 583:5.136106831022085E-4 584:5.136106831022085E-4 585:5.136106831022085E-4 586:5.136106831022085E-4 587:5.136106831022085E-4 588:5.136106831022085E-4 589:5.136106831022085E-4 590:0.001027221366204417 591:5.136106831022085E-4 592:5.136106831022085E-4 593:5.136106831022085E-4 594:5.136106831022085E-4 595:0.0030816640986132513 596:0.002054442732408834 597:5.136106831022085E-4 598:5.136106831022085E-4 599:5.136106831022085E-4 
-1.0 630:0.001027221366204417 631:5.136106831022085E-4 632:5.136106831022085E-4 633:5.136106831022085E-4 634:0.001027221366204417 635:5.136106831022085E-4 636:0.001027221366204417 637:5.136106831022085E-4 638:5.136106831022085E-4 639:5.136106831022085E-4 640:0.0025680534155110425 641:5.136106831022085E-4 642:5.136106831022085E-4 643:5.136106831022085E-4 644:5.136106831022085E-4 645:5.136106831022085E-4 646:0.001027221366204417 647:5.136106831022085E-4 648:5.136106831022085E-4 649:5.136106831022085E-4 650:0.001027221366204417 651:5.136106831022085E-4 652:5.136106831022085E-4 653:5.136106831022085E-4 654:5.136106831022085E-4 655:5.136106831022085E-4 656:0.001027221366204417 657:5.136106831022085E-4 658:5.136106831022085E-4 659:5.136106831022085E-4 
-1.0 660:5.136106831022085E-4 661:5.136106831022085E-4 662:5.136106831022085E-4 663:0.001027221366204417 664:5.136106831022085E-4 665:5.136106831022085E-4 666:0.0015408320493066256 667:0.001027221366204417 668:5.136106831022085E-4 669:0.001027221366204417 670:5.136106831022085E-4 671:0.0015408320493066256 672:5.136106831022085E-4 673:5.136106831022085E-4 674:0.0015408320493066256 675:0.001027221366204417 676:0.0015408320493066256 677:5.136106831022085E-4 678:5.136106831022085E-4 679:5.136106831022085E-4 680:5.136106831022085E-4 681:5.136106831022085E-4 682:0.0015408320493066256 683:5.136106831022085E-4 684:0.001027221366204417 685:5.136106831022085E-4 686:5.136106831022085E-4 687:5.136106831022085E-4 688:5.136106831022085E-4 689:5.136106831022085E-4 
-1.0 780:0.002054442732408834 781:5.136106831022085E-4 782:0.001027221366204417 783:5.136106831022085E-4 784:5.136106831022085E-4 785:5.136106831022085E-4 786:0.001027221366204417 787:5.136106831022085E-4 788:5.136106831022085E-4 789:5.136106831022085E-4 790:5.136106831022085E-4 791:5.136106831022085E-4 792:5.136106831022085E-4 793:0.0015408320493066256 794:5.136106831022085E-4 795:5.136106831022085E-4 796:5.136106831022085E-4 797:5.136106831022085E-4 798:0.004108885464817668 799:5.136106831022085E-4 800:5.136106831022085E-4 801:5.136106831022085E-4 802:0.001027221366204417 803:5.136106831022085E-4 804:5.136106831022085E-4 805:5.136106831022085E-4 806:5.136106831022085E-4 807:0.001027221366204417 808:5.136106831022085E-4 809:5.136106831022085E-4 
-1.0 870:5.136106831022085E-4 871:0.001027221366204417 872:5.136106831022085E-4 873:5.136106831022085E-4 874:0.001027221366204417 875:5.136106831022085E-4 876:5.136106831022085E-4 877:5.136106831022085E-4 878:5.136106831022085E-4 879:5.136106831022085E-4 880:5.136106831022085E-4 881:0.001027221366204417 882:5.136106831022085E-4 883:0.001027221366204417 884:5.136106831022085E-4 885:0.001027221366204417 886:5.136106831022085E-4 887:5.136106831022085E-4 888:5.136106831022085E-4 889:5.136106831022085E-4 890:0.001027221366204417 891:5.136106831022085E-4 892:5.136106831022085E-4 893:5.136106831022085E-4 894:0.001027221366204417 895:5.136106831022085E-4 896:0.0015408320493066256 897:5.136106831022085E-4 898:5.136106831022085E-4 899:5.136106831022085E-4 
-1.0 930:0.001027221366204417 931:0.001027221366204417 932:5.136106831022085E-4 933:5.136106831022085E-4 934:5.136106831022085E-4 935:5.136106831022085E-4 936:5.136106831022085E-4 937:5.136106831022085E-4 938:5.136106831022085E-4 939:5.136106831022085E-4 940:5.136106831022085E-4 941:5.136106831022085E-4 942:5.136106831022085E-4 943:5.136106831022085E-4 944:5.136106831022085E-4 945:0.004622496147919877 946:5.136106831022085E-4 947:5.136106831022085E-4 948:5.136106831022085E-4 949:5.136106831022085E-4 950:0.001027221366204417 951:5.136106831022085E-4 952:0.001027221366204417 953:0.001027221366204417 954:5.136106831022085E-4 955:0.0015408320493066256 956:0.001027221366204417 957:5.136106831022085E-4 958:5.136106831022085E-4 959:5.136106831022085E-4 
-1.0 960:5.136106831022085E-4 961:5.136106831022085E-4 962:0.002054442732408834 963:0.002054442732408834 964:5.136106831022085E-4 965:5.136106831022085E-4 966:5.136106831022085E-4 967:5.136106831022085E-4 968:5.136106831022085E-4 969:5.136106831022085E-4 970:0.0025680534155110425 971:5.136106831022085E-4 972:5.136106831022085E-4 973:5.136106831022085E-4 974:5.136106831022085E-4 975:5.136106831022085E-4 976:5.136106831022085E-4 977:5.136106831022085E-4 978:5.136106831022085E-4 979:5.136106831022085E-4 980:5.136106831022085E-4 981:5.136106831022085E-4 982:5.136106831022085E-4 983:5.136106831022085E-4 984:5.136106831022085E-4 985:5.136106831022085E-4 986:5.136106831022085E-4 987:5.136106831022085E-4 988:0.002054442732408834 989:5.136106831022085E-4 
-1.0 1140:5.136106831022085E-4 1141:5.136106831022085E-4 1142:5.136106831022085E-4 1143:5.136106831022085E-4 1144:0.0015408320493066256 1145:5.136106831022085E-4 1146:5.136106831022085E-4 1147:5.136106831022085E-4 1148:0.001027221366204417 1149:5.136106831022085E-4 1150:0.001027221366204417 1151:5.136106831022085E-4 1152:5.136106831022085E-4 1153:5.136106831022085E-4 1154:0.001027221366204417 1155:5.136106831022085E-4 1156:5.136106831022085E-4 1157:0.001027221366204417 1158:5.136106831022085E-4 1159:5.136106831022085E-4 1160:5.136106831022085E-4 1161:5.136106831022085E-4 1162:0.001027221366204417 1163:5.136106831022085E-4 1164:5.136106831022085E-4 1165:5.136106831022085E-4 1166:5.136106831022085E-4 1167:5.136106831022085E-4 1168:5.136106831022085E-4 1169:0.0015408320493066256 
-1.0 1200:0.001027221366204417 1201:5.136106831022085E-4 1202:5.136106831022085E-4 1203:5.136106831022085E-4 1204:5.136106831022085E-4 1205:0.001027221366204417 1206:5.136106831022085E-4 1207:5.136106831022085E-4 1208:0.001027221366204417 1209:5.136106831022085E-4 1210:5.136106831022085E-4 1211:5.136106831022085E-4 1212:5.136106831022085E-4 1213:5.136106831022085E-4 1214:0.001027221366204417 1215:5.136106831022085E-4 1216:5.136106831022085E-4 1217:5.136106831022085E-4 1218:5.136106831022085E-4 1219:5.136106831022085E-4 1220:5.136106831022085E-4 1221:5.136106831022085E-4 1222:0.001027221366204417 1223:5.136106831022085E-4 1224:5.136106831022085E-4 1225:5.136106831022085E-4 1226:5.136106831022085E-4 1227:5.136106831022085E-4 1228:5.136106831022085E-4 1229:5.136106831022085E-4 
-1.0 1230:0.001027221366204417 1231:0.0015408320493066256 1232:5.136106831022085E-4 1233:5.136106831022085E-4 1234:5.136106831022085E-4 1235:5.136106831022085E-4 1236:5.136106831022085E-4 1237:5.136106831022085E-4 1238:5.136106831022085E-4 1239:5.136106831022085E-4 1240:5.136106831022085E-4 1241:5.136106831022085E-4 1242:5.136106831022085E-4 1243:5.136106831022085E-4 1244:5.136106831022085E-4 1245:5.136106831022085E-4 1246:5.136106831022085E-4 1247:5.136106831022085E-4 1248:0.001027221366204417 1249:0.001027221366204417 
